Language model created by QuickLM on Mon Feb 14 03:14:06 EST 2022
Copyright (c) 1996-2010 Carnegie Mellon University and Alexander I. Rudnicky

The model is in standard ARPA format, designed by Doug Paul while he was at MITRE.

The code that was used to produce this language model is available in Open Source.
Please visit http://www.speech.cs.cmu.edu/tools/ for more information

The (fixed) discount mass is 0.5. The backoffs are computed using the ratio method.
This model based on a corpus of 19 sentences and 25 words

\data\
ngram 1=25
ngram 2=42
ngram 3=45

\1-grams:
-1.0045 </s> -0.3010
-1.0045 <s> -0.2558
-1.0045 BOB -0.2558
-2.2833 BYDGOSZCZ -0.2558
-1.5843 CLOSE -0.2802
-1.9823 DC -0.2558
-2.2833 ENOUGH -0.2558
-2.2833 IDOL -0.2558
-1.9823 INTERNET -0.2558
-2.2833 INTRODUCE -0.2988
-2.2833 LAUGH -0.2558
-2.2833 MUSIC -0.2558
-2.2833 NEW -0.2988
-2.2833 NO -0.2558
-1.5843 OPEN -0.2802
-1.5051 PLAY -0.2872
-2.2833 PRANK -0.2558
-2.2833 SABATON -0.2558
-2.2833 SAY -0.2988
-1.9823 STEAM -0.2558
-2.2833 SUPER -0.2988
-2.2833 TAB -0.2558
-2.2833 TEAMS -0.2558
-2.2833 YOURSELF -0.2558
-1.9823 YOUTUBE -0.2558

\2-grams:
-0.3010 <s> BOB 0.0000
-0.8808 BOB CLOSE 0.0000
-1.5798 BOB INTRODUCE 0.0000
-0.8808 BOB OPEN 0.0000
-0.8016 BOB PLAY 0.0000
-1.5798 BOB PRANK 0.0000
-1.5798 BOB SAY 0.0000
-0.3010 BYDGOSZCZ </s> -0.3010
-1.0000 CLOSE DC 0.0000
-1.0000 CLOSE INTERNET 0.0000
-1.0000 CLOSE STEAM 0.0000
-1.0000 CLOSE TEAMS 0.0000
-1.0000 CLOSE YOUTUBE 0.0000
-0.3010 DC </s> -0.3010
-0.3010 ENOUGH </s> -0.3010
-0.3010 IDOL </s> -0.3010
-0.3010 INTERNET </s> -0.3010
-0.3010 INTRODUCE YOURSELF 0.0000
-0.3010 LAUGH </s> -0.3010
-0.3010 MUSIC </s> -0.3010
-0.3010 NEW TAB 0.0000
-0.3010 NO </s> -0.3010
-1.0000 OPEN DC 0.0000
-1.0000 OPEN INTERNET 0.0000
-1.0000 OPEN NEW 0.0000
-1.0000 OPEN STEAM 0.0000
-1.0000 OPEN YOUTUBE 0.0000
-1.0792 PLAY ENOUGH 0.0000
-1.0792 PLAY LAUGH 0.0000
-1.0792 PLAY MUSIC 0.0000
-1.0792 PLAY NO 0.0000
-1.0792 PLAY SABATON 0.0000
-1.0792 PLAY SUPER 0.0000
-0.3010 PRANK </s> -0.3010
-0.3010 SABATON </s> -0.3010
-0.3010 SAY BYDGOSZCZ 0.0000
-0.3010 STEAM </s> -0.3010
-0.3010 SUPER IDOL 0.0000
-0.3010 TAB </s> -0.3010
-0.3010 TEAMS </s> -0.3010
-0.3010 YOURSELF </s> -0.3010
-0.3010 YOUTUBE </s> -0.3010

\3-grams:
-0.8808 <s> BOB CLOSE
-1.5798 <s> BOB INTRODUCE
-0.8808 <s> BOB OPEN
-0.8016 <s> BOB PLAY
-1.5798 <s> BOB PRANK
-1.5798 <s> BOB SAY
-1.0000 BOB CLOSE DC
-1.0000 BOB CLOSE INTERNET
-1.0000 BOB CLOSE STEAM
-1.0000 BOB CLOSE TEAMS
-1.0000 BOB CLOSE YOUTUBE
-0.3010 BOB INTRODUCE YOURSELF
-1.0000 BOB OPEN DC
-1.0000 BOB OPEN INTERNET
-1.0000 BOB OPEN NEW
-1.0000 BOB OPEN STEAM
-1.0000 BOB OPEN YOUTUBE
-1.0792 BOB PLAY ENOUGH
-1.0792 BOB PLAY LAUGH
-1.0792 BOB PLAY MUSIC
-1.0792 BOB PLAY NO
-1.0792 BOB PLAY SABATON
-1.0792 BOB PLAY SUPER
-0.3010 BOB PRANK </s>
-0.3010 BOB SAY BYDGOSZCZ
-0.3010 CLOSE DC </s>
-0.3010 CLOSE INTERNET </s>
-0.3010 CLOSE STEAM </s>
-0.3010 CLOSE TEAMS </s>
-0.3010 CLOSE YOUTUBE </s>
-0.3010 INTRODUCE YOURSELF </s>
-0.3010 NEW TAB </s>
-0.3010 OPEN DC </s>
-0.3010 OPEN INTERNET </s>
-0.3010 OPEN NEW TAB
-0.3010 OPEN STEAM </s>
-0.3010 OPEN YOUTUBE </s>
-0.3010 PLAY ENOUGH </s>
-0.3010 PLAY LAUGH </s>
-0.3010 PLAY MUSIC </s>
-0.3010 PLAY NO </s>
-0.3010 PLAY SABATON </s>
-0.3010 PLAY SUPER IDOL
-0.3010 SAY BYDGOSZCZ </s>
-0.3010 SUPER IDOL </s>

\end\